\data\
ngram 1=13
\1-grams:
-1.0000 <unk>	-0.2553
-98.9366 <s>	 -0.3064
-1.0000 </s>	 0.0000
-0.6990 zero	
-0.6990 one	
-0.6990 two	
-0.6990 three	
-0.6990 four    
-0.6990 five    
-0.6990 six   
-0.6990 seven  
-0.6990 eight   
-0.6990 nine    
\end\
