\data\
ngram 1=13
\1-grams:
-1.0000 <unk>	-0.2553
-98.9366 <s>	 -0.3064
-1.0000 </s>	 0.0000
-0.6990 null	
-0.6990 eins	
-0.6990 zwei	
-0.6990 drei	
-0.6990 vier    
-0.6990 fünf    
-0.6990 sechs   
-0.6990 sieben  
-0.6990 acht    
-0.6990 neun    
\end\
