\data\
ngram 1=13
\1-grams:
-1.0000 <unk>	-0.2553
-98.9366 <s>	 -0.3064
-1.0000 </s>	 0.0000
-0.6990 rot
-0.6990 blau
-0.6990 grün
-0.6990 weiß
-0.6990 schwarz
-0.6990 gelb
-0.6990 orange
-0.6990 braun
-0.6990 rosa
-0.6990 violett
\end\
